{"layer_0_weights": [[-0.9753834700667157, 0.19520028146788876, -1.7328225977822953, 0.16123338956430755, -1.505647945997245, -0.19270667446552625, 0.19641959025178138, -0.7721204912041325, -0.6075236260341804, 0.2837053917157369], [1.514739704947306, -0.014249995433799546, 0.18060772350521245, -0.18013097036325082, -0.06033399694050699, 0.347378355379091, -0.10384903819342536, 0.8234685099552007, -0.44829926606906406, -0.4263317158160439], [0.1032574333564341, 0.1502598579081339, -0.8162103121740432, -1.0859938813324153, 0.2666361144050439, 0.15841557278342258, -1.142449446328617, 0.04127613694946011, -1.2944794148609315, -0.4894537784656439], [0.346195043163287, 0.18018939334507164, -0.6726104738567381, -0.13562287290995453, 0.5310535764683171, 0.22551198600101713, -0.42597405144668504, 0.44274123785089353, 0.5303273663651593, -0.039582549239448664], [0.6578749529058211, 0.20031235519104165, -0.13790370781152886, 0.4478078257861305, 0.1559234254854327, 0.32354293747816304, 0.37391644959658227, 1.0230129445707463, 0.40291164453545436, -0.9770265298865963]], "layer_0_biases": [[0.0, 0.0, 0.0, 0.0, 0.0, 0.0, 0.0, 0.0, 0.0, 0.0]], "layer_1_weights": [[-0.6058650456978995], [-0.21024032642084214], [-0.12287250471583248], [1.1024261005899714], [-0.399952655415265], [-0.6632557981625092], [0.03213104980256746], [0.300381302733094], [-0.1260874469423527], [-0.2127278541293939]], "layer_1_biases": [[0.0]]}